digraph Tree {
node [shape=box, style="rounded", color="black", fontname="helvetica"] ;
edge [fontname="helvetica"] ;
0 [label="EstimatedSalary <= 90500.0\nsquared_error = 0.2\nsamples = 190\nvalue = 0.4"] ;
1 [label="Age <= 43.5\nsquared_error = 0.2\nsamples = 150\nvalue = 0.2"] ;
0 -> 1 [labeldistance=2.5, labelangle=45, headlabel="True"] ;
2 [label="Age <= 36.5\nsquared_error = 0.0\nsamples = 121\nvalue = 0.0"] ;
1 -> 2 ;
3 [label="squared_error = 0.0\nsamples = 80\nvalue = 0.0"] ;
2 -> 3 ;
4 [label="squared_error = 0.1\nsamples = 41\nvalue = 0.1"] ;
2 -> 4 ;
5 [label="EstimatedSalary <= 43000.0\nsquared_error = 0.1\nsamples = 29\nvalue = 0.9"] ;
1 -> 5 ;
6 [label="squared_error = 0.0\nsamples = 15\nvalue = 1.0"] ;
5 -> 6 ;
7 [label="squared_error = 0.2\nsamples = 14\nvalue = 0.8"] ;
5 -> 7 ;
8 [label="User ID <= 15573089.5\nsquared_error = 0.1\nsamples = 40\nvalue = 0.9"] ;
0 -> 8 [labeldistance=2.5, labelangle=-45, headlabel="False"] ;
9 [label="squared_error = 0.0\nsamples = 1\nvalue = 0.0"] ;
8 -> 9 ;
10 [label="EstimatedSalary <= 96500.0\nsquared_error = 0.0\nsamples = 39\nvalue = 1.0"] ;
8 -> 10 ;
11 [label="squared_error = 0.1\nsamples = 5\nvalue = 0.9"] ;
10 -> 11 ;
12 [label="squared_error = 0.0\nsamples = 34\nvalue = 1.0"] ;
10 -> 12 ;
}